<?xml version="1.0"?>
<opencv_storage>
<cascade>
  <stageType>BOOST</stageType>
  <featureType>HAAR</featureType>
  <height>30</height>
  <width>30</width>
  <stageParams>
    <boostType>GAB</boostType>
    <minHitRate>9.9500000476837158e-01</minHitRate>
    <maxFalseAlarm>5.0000000000000000e-01</maxFalseAlarm>
    <weightTrimRate>9.4999999999999996e-01</weightTrimRate>
    <maxDepth>1</maxDepth>
    <maxWeakCount>100</maxWeakCount></stageParams>
  <featureParams>
    <maxCatCount>0</maxCatCount>
    <featSize>1</featSize>
    <mode>BASIC</mode></featureParams>
  <stageNum>20</stageNum>
  <stages>
    <!-- stage 0 -->
    <_>
      <maxWeakCount>4</maxWeakCount>
      <stageThreshold>-1.1747430562973022e+00</stageThreshold>
      <weakClassifiers>
        <_>
          <internalNodes>
            0 -1 108 -5.2233107388019562e-02</internalNodes>
          <leafValues>
            8.0000001192092896e-01 -6.6784453392028809e-01</leafValues></_>
        <_>
          <internalNodes>
            0 -1 136 1.1543514207005501e-02</internalNodes>
          <leafValues>
            -5.4201269149780273e-01 7.7991294860839844e-01</leafValues></_>
        <_>
          <internalNodes>
            0 -1 175 1.1582913575693965e-03</internalNodes>
          <leafValues>
            -6.3727599382400513e-01 6.5417355298995972e-01</leafValues></_>
        <_>
          <internalNodes>
            0 -1 85 -1.4937030151486397e-02</internalNodes>
          <leafValues>
            6.7239010334014893e-01 -7.8159731626510620e-01</leafValues></_></weakClassifiers></_>
    <!-- stage 1 -->
    <_>
      <maxWeakCount>5</maxWeakCount>
      <stageThreshold>-8.3500212430953979e-01</stageThreshold>
      <weakClassifiers>
        <_>
          <internalNodes>
            0 -1 103 -1.2470204383134842e-02</internalNodes>
          <leafValues>
            5.4893618822097778e-01 -8.3486241102218628e-01</leafValues></_>
        <_>
          <internalNodes>
            0 -1 9 -9.6446916460990906e-02</internalNodes>
          <leafValues>
            6.4173835515975952e-01 -5.6554311513900757e-01</leafValues></_>
        <_>
          <internalNodes>
            0 -1 12 -1.1924690334126353e-03</internalNodes>
          <leafValues>
            7.6268213987350464e-01 -4.4296106696128845e-01</leafValues></_>
        <_>
          <internalNodes>
            0 -1 67 -3.3955693244934082e-02</internalNodes>
          <leafValues>
            3.9404702186584473e-01 -7.9826003313064575e-01</leafValues></_>
        <_>
          <internalNodes>
            0 -1 145 1.1414246728236321e-05</internalNodes>
          <leafValues>
            -4.9937558174133301e-01 6.1431741714477539e-01</leafValues></_></weakClassifiers></_>
    <!-- stage 2 -->
    <_>
      <maxWeakCount>6</maxWeakCount>
      <stageThreshold>-1.0361528396606445e+00</stageThreshold>
      <weakClassifiers>
        <_>
          <internalNodes>
            0 -1 176 1.9636785145848989e-03</internalNodes>
          <leafValues>
            -6.5185183286666870e-01 6.7213112115859985e-01</leafValues></_>
        <_>
          <internalNodes>
            0 -1 109 -5.3721055388450623e-02</internalNodes>
          <leafValues>
            4.0992540121078491e-01 -7.8983122110366821e-01</leafValues></_>
        <_>
          <internalNodes>
            0 -1 107 2.7253378648310900e-03</internalNodes>
          <leafValues>
            -4.7239306569099426e-01 6.0893255472183228e-01</leafValues></_>
        <_>
          <internalNodes>
            0 -1 39 -5.0482833757996559e-03</internalNodes>
          <leafValues>
            7.0071393251419067e-01 -3.4107097983360291e-01</leafValues></_>
        <_>
          <internalNodes>
            0 -1 122 6.0030734166502953e-03</internalNodes>
          <leafValues>
            -5.4861110448837280e-01 4.4271075725555420e-01</leafValues></_>
        <_>
          <internalNodes>
            0 -1 16 -7.7444612979888916e-03</internalNodes>
          <leafValues>
            7.7628356218338013e-01 -3.2450091838836670e-01</leafValues></_></weakClassifiers></_>
    <!-- stage 3 -->
    <_>
      <maxWeakCount>6</maxWeakCount>
      <stageThreshold>-8.0586975812911987e-01</stageThreshold>
      <weakClassifiers>
        <_>
          <internalNodes>
            0 -1 31 -2.5496631860733032e-01</internalNodes>
          <leafValues>
            4.4036698341369629e-01 -6.3404256105422974e-01</leafValues></_>
        <_>
          <internalNodes>
            0 -1 168 -1.8188860267400742e-03</internalNodes>
          <leafValues>
            6.4489316940307617e-01 -3.4974569082260132e-01</leafValues></_>
        <_>
          <internalNodes>
            0 -1 66 6.7569955717772245e-04</internalNodes>
          <leafValues>
            -6.2455892562866211e-01 4.1618984937667847e-01</leafValues></_>
        <_>
          <internalNodes>
            0 -1 20 -4.7785136848688126e-03</internalNodes>
          <leafValues>
            8.7726205587387085e-01 -2.6852586865425110e-01</leafValues></_>
        <_>
          <internalNodes>
            0 -1 71 -3.7818044424057007e-02</internalNodes>
          <leafValues>
            5.5143582820892334e-01 -4.0065982937812805e-01</leafValues></_>
        <_>
          <internalNodes>
            0 -1 54 8.8758251877152361e-06</internalNodes>
          <leafValues>
            -4.7507140040397644e-01 5.5115479230880737e-01</leafValues></_></weakClassifiers></_>
    <!-- stage 4 -->
    <_>
      <maxWeakCount>8</maxWeakCount>
      <stageThreshold>-7.1131730079650879e-01</stageThreshold>
      <weakClassifiers>
        <_>
          <internalNodes>
            0 -1 60 -5.5876849219202995e-03</internalNodes>
          <leafValues>
            7.3333334922790527e-01 -4.7798740863800049e-01</leafValues></_>
        <_>
          <internalNodes>
            0 -1 129 1.2218059055157937e-05</internalNodes>
          <leafValues>
            -5.3741264343261719e-01 3.8207381963729858e-01</leafValues></_>
        <_>
          <internalNodes>
            0 -1 141 2.7707021217793226e-05</internalNodes>
          <leafValues>
            -4.4105690717697144e-01 4.9153840541839600e-01</leafValues></_>
        <_>
          <internalNodes>
            0 -1 30 -1.4893555641174316e-01</internalNodes>
          <leafValues>
            2.6508441567420959e-01 -6.9482207298278809e-01</leafValues></_>
        <_>
          <internalNodes>
            0 -1 10 -3.5651251673698425e-03</internalNodes>
          <leafValues>
            6.8400716781616211e-01 -3.5743829607963562e-01</leafValues></_>
        <_>
          <internalNodes>
            0 -1 17 3.4176162444055080e-03</internalNodes>
          <leafValues>
            -2.6875671744346619e-01 7.9378372430801392e-01</leafValues></_>
        <_>
          <internalNodes>
            0 -1 90 1.7944650608114898e-05</internalNodes>
          <leafValues>
            -2.8135287761688232e-01 7.1307808160781860e-01</leafValues></_>
        <_>
          <internalNodes>
            0 -1 118 -8.8758251877152361e-06</internalNodes>
          <leafValues>
            4.6811664104461670e-01 -4.4479247927665710e-01</leafValues></_></weakClassifiers></_>
    <!-- stage 5 -->
    <_>
      <maxWeakCount>6</maxWeakCount>
      <stageThreshold>-8.7183386087417603e-01</stageThreshold>
      <weakClassifiers>
        <_>
          <internalNodes>
            0 -1 34 9.1335745528340340e-03</internalNodes>
          <leafValues>
            3.6121672391891479e-01 -7.7894735336303711e-01</leafValues></_>
        <_>
          <internalNodes>
            0 -1 178 1.1409567669034004e-03</internalNodes>
          <leafValues>
            -5.6474941968917847e-01 4.1199222207069397e-01</leafValues></_>
        <_>
          <internalNodes>
            0 -1 84 -1.0604157978377771e-05</internalNodes>
          <leafValues>
            5.4179471731185913e-01 -4.1250026226043701e-01</leafValues></_>
        <_>
          <internalNodes>
            0 -1 19 -3.6033419892191887e-03</internalNodes>
          <leafValues>
            8.1278502941131592e-01 -2.6463654637336731e-01</leafValues></_>
        <_>
          <internalNodes>
            0 -1 97 -1.0669096373021603e-03</internalNodes>
          <leafValues>
            5.1694130897521973e-01 -4.2518207430839539e-01</leafValues></_>
        <_>
          <internalNodes>
            0 -1 63 -1.0787197425088380e-05</internalNodes>
          <leafValues>
            6.2051939964294434e-01 -3.2223653793334961e-01</leafValues></_></weakClassifiers></_>
    <!-- stage 6 -->
    <_>
      <maxWeakCount>8</maxWeakCount>
      <stageThreshold>-1.6203138828277588e+00</stageThreshold>
      <weakClassifiers>
        <_>
          <internalNodes>
            0 -1 2 -1.2193602323532104e-01</internalNodes>
          <leafValues>
            4.0772533416748047e-01 -6.7272728681564331e-01</leafValues></_>
        <_>
          <internalNodes>
            0 -1 113 -1.9011529162526131e-02</internalNodes>
          <leafValues>
            3.3669394254684448e-01 -7.6801866292953491e-01</leafValues></_>
        <_>
          <internalNodes>
            0 -1 120 -4.6308971941471100e-03</internalNodes>
          <leafValues>
            7.5091558694839478e-01 -2.9140919446945190e-01</leafValues></_>
        <_>
          <internalNodes>
            0 -1 44 -7.0229433476924896e-03</internalNodes>
          <leafValues>
            5.1258361339569092e-01 -4.3953239917755127e-01</leafValues></_>
        <_>
          <internalNodes>
            0 -1 119 6.5590138547122478e-05</internalNodes>
          <leafValues>
            -4.8351681232452393e-01 4.0751159191131592e-01</leafValues></_>
        <_>
          <internalNodes>
            0 -1 117 1.9686724990606308e-02</internalNodes>
          <leafValues>
            -3.4497183561325073e-01 6.5208846330642700e-01</leafValues></_>
        <_>
          <internalNodes>
            0 -1 3 -1.8047745525836945e-01</internalNodes>
          <leafValues>
            4.8247998952865601e-01 -4.3232187628746033e-01</leafValues></_>
        <_>
          <internalNodes>
            0 -1 11 -5.1856450736522675e-02</internalNodes>
          <leafValues>
            7.7794873714447021e-01 -2.6532867550849915e-01</leafValues></_></weakClassifiers></_>
    <!-- stage 7 -->
    <_>
      <maxWeakCount>8</maxWeakCount>
      <stageThreshold>-6.6127794981002808e-01</stageThreshold>
      <weakClassifiers>
        <_>
          <internalNodes>
            0 -1 177 3.5763159394264221e-03</internalNodes>
          <leafValues>
            -5.1612901687622070e-01 3.6585366725921631e-01</leafValues></_>
        <_>
          <internalNodes>
            0 -1 65 -4.5362515375018120e-03</internalNodes>
          <leafValues>
            5.8714491128921509e-01 -3.3224606513977051e-01</leafValues></_>
        <_>
          <internalNodes>
            0 -1 150 -2.2853437258163467e-05</internalNodes>
          <leafValues>
            4.3706274032592773e-01 -4.4669857621192932e-01</leafValues></_>
        <_>
          <internalNodes>
            0 -1 83 3.3621308393776417e-03</internalNodes>
          <leafValues>
            -3.9448094367980957e-01 5.1480478048324585e-01</leafValues></_>
        <_>
          <internalNodes>
            0 -1 70 -1.3864116044715047e-04</internalNodes>
          <leafValues>
            3.5734808444976807e-01 -4.7850194573402405e-01</leafValues></_>
        <_>
          <internalNodes>
            0 -1 127 -3.3030675695044920e-05</internalNodes>
          <leafValues>
            3.2601305842399597e-01 -4.8266211152076721e-01</leafValues></_>
        <_>
          <internalNodes>
            0 -1 163 5.4136244580149651e-04</internalNodes>
          <leafValues>
            -2.3916120827198029e-01 6.5164786577224731e-01</leafValues></_>
        <_>
          <internalNodes>
            0 -1 53 -6.9553684443235397e-03</internalNodes>
          <leafValues>
            5.4958415031433105e-01 -2.9790595173835754e-01</leafValues></_></weakClassifiers></_>
    <!-- stage 8 -->
    <_>
      <maxWeakCount>12</maxWeakCount>
      <stageThreshold>-1.1020801067352295e+00</stageThreshold>
      <weakClassifiers>
        <_>
          <internalNodes>
            0 -1 121 -6.8679407238960266e-02</internalNodes>
          <leafValues>
            2.4904213845729828e-01 -6.1458331346511841e-01</leafValues></_>
        <_>
          <internalNodes>
            0 -1 1 -1.5522412955760956e-01</internalNodes>
          <leafValues>
            4.9488109350204468e-01 -3.6644148826599121e-01</leafValues></_>
        <_>
          <internalNodes>
            0 -1 73 2.0854182366747409e-04</internalNodes>
          <leafValues>
            -4.2160698771476746e-01 3.8040569424629211e-01</leafValues></_>
        <_>
          <internalNodes>
            0 -1 14 -9.5144973602145910e-04</internalNodes>
          <leafValues>
            4.8400792479515076e-01 -3.3628508448600769e-01</leafValues></_>
        <_>
          <internalNodes>
            0 -1 110 -2.0963796414434910e-03</internalNodes>
          <leafValues>
            4.2039784789085388e-01 -3.7617197632789612e-01</leafValues></_>
        <_>
          <internalNodes>
            0 -1 93 -1.0852252598851919e-03</internalNodes>
          <leafValues>
            8.7304890155792236e-01 -1.4784166216850281e-01</leafValues></_>
        <_>
          <internalNodes>
            0 -1 146 1.0164438281208277e-03</internalNodes>
          <leafValues>
            -4.2667183279991150e-01 3.5489460825920105e-01</leafValues></_>
        <_>
          <internalNodes>
            0 -1 171 -1.5025651082396507e-03</internalNodes>
          <leafValues>
            6.1550265550613403e-01 -2.4271634221076965e-01</leafValues></_>
        <_>
          <internalNodes>
            0 -1 74 -4.2336704209446907e-03</internalNodes>
          <leafValues>
            -6.5553897619247437e-01 2.2382025420665741e-01</leafValues></_>
        <_>
          <internalNodes>
            0 -1 106 -6.3310945406556129e-03</internalNodes>
          <leafValues>
            -7.6605707406997681e-01 1.9604618847370148e-01</leafValues></_>
        <_>
          <internalNodes>
            0 -1 125 -1.9893220451194793e-04</internalNodes>
          <leafValues>
            4.6682956814765930e-01 -3.3788722753524780e-01</leafValues></_>
        <_>
          <internalNodes>
            0 -1 135 1.0843174095498398e-05</internalNodes>
          <leafValues>
            -4.7450309991836548e-01 3.3298248052597046e-01</leafValues></_></weakClassifiers></_>
    <!-- stage 9 -->
    <_>
      <maxWeakCount>9</maxWeakCount>
      <stageThreshold>-1.1080135107040405e+00</stageThreshold>
      <weakClassifiers>
        <_>
          <internalNodes>
            0 -1 51 -1.4388330280780792e-01</internalNodes>
          <leafValues>
            2.0274914801120758e-01 -6.9135802984237671e-01</leafValues></_>
        <_>
          <internalNodes>
            0 -1 101 -2.2173514589667320e-03</internalNodes>
          <leafValues>
            4.6349975466728210e-01 -3.7661185860633850e-01</leafValues></_>
        <_>
          <internalNodes>
            0 -1 52 -9.8020076751708984e-02</internalNodes>
          <leafValues>
            3.3125159144401550e-01 -4.7021397948265076e-01</leafValues></_>
        <_>
          <internalNodes>
            0 -1 41 5.2611911669373512e-03</internalNodes>
          <leafValues>
            1.9351524114608765e-01 -8.7810218334197998e-01</leafValues></_>
        <_>
          <internalNodes>
            0 -1 160 -7.5527490116655827e-04</internalNodes>
          <leafValues>
            4.2709410190582275e-01 -3.5703298449516296e-01</leafValues></_>
        <_>
          <internalNodes>
            0 -1 77 -8.3304140716791153e-03</internalNodes>
          <leafValues>
            4.0296441316604614e-01 -3.3307436108589172e-01</leafValues></_>
        <_>
          <internalNodes>
            0 -1 153 5.0519811920821667e-03</internalNodes>
          <leafValues>
            -3.7501570582389832e-01 3.6553904414176941e-01</leafValues></_>
        <_>
          <internalNodes>
            0 -1 26 -1.1374993482604623e-03</internalNodes>
          <leafValues>
            -6.9648396968841553e-01 1.8592296540737152e-01</leafValues></_>
        <_>
          <internalNodes>
            0 -1 170 -2.5054276920855045e-03</internalNodes>
          <leafValues>
            4.5653846859931946e-01 -3.7243852019309998e-01</leafValues></_></weakClassifiers></_>
    <!-- stage 10 -->
    <_>
      <maxWeakCount>9</maxWeakCount>
      <stageThreshold>-8.0108302831649780e-01</stageThreshold>
      <weakClassifiers>
        <_>
          <internalNodes>
            0 -1 4 -2.9536867141723633e-01</internalNodes>
          <leafValues>
            3.9459457993507385e-01 -4.7014924883842468e-01</leafValues></_>
        <_>
          <internalNodes>
            0 -1 13 3.5042562521994114e-03</internalNodes>
          <leafValues>
            -3.1379437446594238e-01 4.8404735326766968e-01</leafValues></_>
        <_>
          <internalNodes>
            0 -1 142 3.4276354126632214e-03</internalNodes>
          <leafValues>
            -3.5063803195953369e-01 4.1270104050636292e-01</leafValues></_>
        <_>
          <internalNodes>
            0 -1 18 3.4699514508247375e-03</internalNodes>
          <leafValues>
            -2.4531047046184540e-01 6.5942734479904175e-01</leafValues></_>
        <_>
          <internalNodes>
            0 -1 36 1.1412030085921288e-02</internalNodes>
          <leafValues>
            1.9970856606960297e-01 -1.</leafValues></_>
        <_>
          <internalNodes>
            0 -1 166 6.0870923334732652e-04</internalNodes>
          <leafValues>
            -3.3845770359039307e-01 4.8866850137710571e-01</leafValues></_>
        <_>
          <internalNodes>
            0 -1 92 5.3335316479206085e-03</internalNodes>
          <leafValues>
            -2.3822402954101562e-01 5.3997528553009033e-01</leafValues></_>
        <_>
          <internalNodes>
            0 -1 114 2.2754807025194168e-02</internalNodes>
          <leafValues>
            2.1725882589817047e-01 -8.7453198432922363e-01</leafValues></_>
        <_>
          <internalNodes>
            0 -1 123 -4.3192999437451363e-03</internalNodes>
          <leafValues>
            1.4737710356712341e-01 -6.9469803571701050e-01</leafValues></_></weakClassifiers></_>
    <!-- stage 11 -->
    <_>
      <maxWeakCount>12</maxWeakCount>
      <stageThreshold>-8.0074322223663330e-01</stageThreshold>
      <weakClassifiers>
        <_>
          <internalNodes>
            0 -1 139 -1.1001878883689642e-03</internalNodes>
          <leafValues>
            4.7619047760963440e-01 -3.4556573629379272e-01</leafValues></_>
        <_>
          <internalNodes>
            0 -1 38 -3.7449197843670845e-03</internalNodes>
          <leafValues>
            6.9847065210342407e-01 -2.0944947004318237e-01</leafValues></_>
        <_>
          <internalNodes>
            0 -1 33 1.8919557332992554e-03</internalNodes>
          <leafValues>
            -2.5916895270347595e-01 6.0449039936065674e-01</leafValues></_>
        <_>
          <internalNodes>
            0 -1 112 7.7261202037334442e-02</internalNodes>
          <leafValues>
            -3.3132982254028320e-01 3.9433848857879639e-01</leafValues></_>
        <_>
          <internalNodes>
            0 -1 86 -9.6101425588130951e-03</internalNodes>
          <leafValues>
            3.6332514882087708e-01 -3.3772736787796021e-01</leafValues></_>
        <_>
          <internalNodes>
            0 -1 48 4.6623037633253261e-05</internalNodes>
          <leafValues>
            -2.8351771831512451e-01 4.3829366564750671e-01</leafValues></_>
        <_>
          <internalNodes>
            0 -1 111 -2.1382187696872279e-05</internalNodes>
          <leafValues>
            3.5807290673255920e-01 -3.9387154579162598e-01</leafValues></_>
        <_>
          <internalNodes>
            0 -1 75 2.6939651434076950e-05</internalNodes>
          <leafValues>
            -4.4536498188972473e-01 2.7190282940864563e-01</leafValues></_>
        <_>
          <internalNodes>
            0 -1 25 4.5222928747534752e-04</internalNodes>
          <leafValues>
            2.4472321569919586e-01 -5.9888488054275513e-01</leafValues></_>
        <_>
          <internalNodes>
            0 -1 5 -1.0325120820198208e-04</internalNodes>
          <leafValues>
            -6.8389588594436646e-01 1.8026266992092133e-01</leafValues></_>
        <_>
          <internalNodes>
            0 -1 151 -2.3035081540001556e-05</internalNodes>
          <leafValues>
            4.3868783116340637e-01 -3.3176007866859436e-01</leafValues></_>
        <_>
          <internalNodes>
            0 -1 143 -3.6506599280983210e-03</internalNodes>
          <leafValues>
            4.3605342507362366e-01 -3.2408252358436584e-01</leafValues></_></weakClassifiers></_>
    <!-- stage 12 -->
    <_>
      <maxWeakCount>9</maxWeakCount>
      <stageThreshold>-1.1423964500427246e+00</stageThreshold>
      <weakClassifiers>
        <_>
          <internalNodes>
            0 -1 94 -4.6843406744301319e-03</internalNodes>
          <leafValues>
            6.6666668653488159e-01 -3.4472933411598206e-01</leafValues></_>
        <_>
          <internalNodes>
            0 -1 23 1.4886111021041870e-03</internalNodes>
          <leafValues>
            -3.1362894177436829e-01 4.3341329693794250e-01</leafValues></_>
        <_>
          <internalNodes>
            0 -1 69 -1.8114762497134507e-05</internalNodes>
          <leafValues>
            3.1041583418846130e-01 -3.9969536662101746e-01</leafValues></_>
        <_>
          <internalNodes>
            0 -1 78 -5.0602786242961884e-02</internalNodes>
          <leafValues>
            -7.6176822185516357e-01 1.4715814590454102e-01</leafValues></_>
        <_>
          <internalNodes>
            0 -1 148 -8.4549301391234621e-06</internalNodes>
          <leafValues>
            3.8753062486648560e-01 -3.6880949139595032e-01</leafValues></_>
        <_>
          <internalNodes>
            0 -1 154 -3.1087867682799697e-05</internalNodes>
          <leafValues>
            3.5412764549255371e-01 -4.2309409379959106e-01</leafValues></_>
        <_>
          <internalNodes>
            0 -1 98 4.7170557081699371e-03</internalNodes>
          <leafValues>
            -2.5674766302108765e-01 5.5003529787063599e-01</leafValues></_>
        <_>
          <internalNodes>
            0 -1 82 -1.0159696103073657e-05</internalNodes>
          <leafValues>
            3.2305717468261719e-01 -4.4848498702049255e-01</leafValues></_>
        <_>
          <internalNodes>
            0 -1 56 9.6563626357237808e-06</internalNodes>
          <leafValues>
            -2.6224699616432190e-01 5.6785815954208374e-01</leafValues></_></weakClassifiers></_>
    <!-- stage 13 -->
    <_>
      <maxWeakCount>12</maxWeakCount>
      <stageThreshold>-9.2621737718582153e-01</stageThreshold>
      <weakClassifiers>
        <_>
          <internalNodes>
            0 -1 29 -5.6693856604397297e-03</internalNodes>
          <leafValues>
            3.0769231915473938e-01 -4.0221402049064636e-01</leafValues></_>
        <_>
          <internalNodes>
            0 -1 72 -6.0288282111287117e-03</internalNodes>
          <leafValues>
            2.7942919731140137e-01 -4.2555400729179382e-01</leafValues></_>
        <_>
          <internalNodes>
            0 -1 181 3.9325037505477667e-04</internalNodes>
          <leafValues>
            2.4302898347377777e-01 -5.5501097440719604e-01</leafValues></_>
        <_>
          <internalNodes>
            0 -1 100 -7.3768533766269684e-03</internalNodes>
          <leafValues>
            -7.9244637489318848e-01 1.8152093887329102e-01</leafValues></_>
        <_>
          <internalNodes>
            0 -1 79 -1.2355940416455269e-02</internalNodes>
          <leafValues>
            5.2897560596466064e-01 -2.5763899087905884e-01</leafValues></_>
        <_>
          <internalNodes>
            0 -1 35 2.4169921875000000e-02</internalNodes>
          <leafValues>
            -2.3561739921569824e-01 5.7163095474243164e-01</leafValues></_>
        <_>
          <internalNodes>
            0 -1 59 3.1428928487002850e-03</internalNodes>
          <leafValues>
            2.1251860260963440e-01 -7.2881889343261719e-01</leafValues></_>
        <_>
          <internalNodes>
            0 -1 130 -4.4129646994406357e-05</internalNodes>
          <leafValues>
            3.3160284161567688e-01 -4.0456116199493408e-01</leafValues></_>
        <_>
          <internalNodes>
            0 -1 45 -1.5711853280663490e-02</internalNodes>
          <leafValues>
            4.4926211237907410e-01 -3.2486557960510254e-01</leafValues></_>
        <_>
          <internalNodes>
            0 -1 27 1.9207835430279374e-04</internalNodes>
          <leafValues>
            2.3543199896812439e-01 -5.7543051242828369e-01</leafValues></_>
        <_>
          <internalNodes>
            0 -1 144 -2.4087508209049702e-03</internalNodes>
          <leafValues>
            3.1486055254936218e-01 -4.0385165810585022e-01</leafValues></_>
        <_>
          <internalNodes>
            0 -1 95 -8.5307121276855469e-02</internalNodes>
          <leafValues>
            2.1265290677547455e-01 -6.0274183750152588e-01</leafValues></_></weakClassifiers></_>
    <!-- stage 14 -->
    <_>
      <maxWeakCount>11</maxWeakCount>
      <stageThreshold>-1.2404516935348511e+00</stageThreshold>
      <weakClassifiers>
        <_>
          <internalNodes>
            0 -1 179 2.2787651978433132e-03</internalNodes>
          <leafValues>
            -4.5593869686126709e-01 3.4375000000000000e-01</leafValues></_>
        <_>
          <internalNodes>
            0 -1 115 -2.2874904971104115e-04</internalNodes>
          <leafValues>
            2.9956439137458801e-01 -3.6392554640769958e-01</leafValues></_>
        <_>
          <internalNodes>
            0 -1 64 2.7402648702263832e-03</internalNodes>
          <leafValues>
            -2.5622099637985229e-01 5.1716321706771851e-01</leafValues></_>
        <_>
          <internalNodes>
            0 -1 173 7.5718382140621543e-04</internalNodes>
          <leafValues>
            -2.2950294613838196e-01 6.7277950048446655e-01</leafValues></_>
        <_>
          <internalNodes>
            0 -1 155 1.5211719437502325e-04</internalNodes>
          <leafValues>
            -3.4968307614326477e-01 3.9498695731163025e-01</leafValues></_>
        <_>
          <internalNodes>
            0 -1 131 -3.0006631277501583e-03</internalNodes>
          <leafValues>
            -8.5827445983886719e-01 1.5800555050373077e-01</leafValues></_>
        <_>
          <internalNodes>
            0 -1 68 -7.4662326369434595e-04</internalNodes>
          <leafValues>
            2.7355992794036865e-01 -4.1415107250213623e-01</leafValues></_>
        <_>
          <internalNodes>
            0 -1 147 -4.1726324707269669e-04</internalNodes>
          <leafValues>
            3.5827171802520752e-01 -3.8392737507820129e-01</leafValues></_>
        <_>
          <internalNodes>
            0 -1 43 3.7847971543669701e-04</internalNodes>
          <leafValues>
            -5.6623554229736328e-01 2.3132944107055664e-01</leafValues></_>
        <_>
          <internalNodes>
            0 -1 15 -2.7000298723578453e-03</internalNodes>
          <leafValues>
            3.7476700544357300e-01 -3.6515530943870544e-01</leafValues></_>
        <_>
          <internalNodes>
            0 -1 149 -2.1293140016496181e-03</internalNodes>
          <leafValues>
            5.0920653343200684e-01 -2.7237689495086670e-01</leafValues></_></weakClassifiers></_>
    <!-- stage 15 -->
    <_>
      <maxWeakCount>12</maxWeakCount>
      <stageThreshold>-9.8302727937698364e-01</stageThreshold>
      <weakClassifiers>
        <_>
          <internalNodes>
            0 -1 7 -3.5055272281169891e-02</internalNodes>
          <leafValues>
            3.2544377446174622e-01 -3.8028168678283691e-01</leafValues></_>
        <_>
          <internalNodes>
            0 -1 169 -3.1369528733193874e-03</internalNodes>
          <leafValues>
            4.4232529401779175e-01 -2.6212868094444275e-01</leafValues></_>
        <_>
          <internalNodes>
            0 -1 55 3.1693182885646820e-02</internalNodes>
          <leafValues>
            1.6805583238601685e-01 -6.4226484298706055e-01</leafValues></_>
        <_>
          <internalNodes>
            0 -1 104 -3.3380198292434216e-03</internalNodes>
          <leafValues>
            -6.0945069789886475e-01 1.9600062072277069e-01</leafValues></_>
        <_>
          <internalNodes>
            0 -1 24 -3.9751658914610744e-04</internalNodes>
          <leafValues>
            2.8216111660003662e-01 -3.9965483546257019e-01</leafValues></_>
        <_>
          <internalNodes>
            0 -1 8 -3.2789788674563169e-03</internalNodes>
          <leafValues>
            3.8335144519805908e-01 -2.8079840540885925e-01</leafValues></_>
        <_>
          <internalNodes>
            0 -1 57 8.5995476692914963e-03</internalNodes>
          <leafValues>
            1.5087220072746277e-01 -6.8689084053039551e-01</leafValues></_>
        <_>
          <internalNodes>
            0 -1 40 1.2351259356364608e-03</internalNodes>
          <leafValues>
            1.5896613895893097e-01 -7.3676562309265137e-01</leafValues></_>
        <_>
          <internalNodes>
            0 -1 37 3.1566704274155200e-04</internalNodes>
          <leafValues>
            -2.5412198901176453e-01 4.7733733057975769e-01</leafValues></_>
        <_>
          <internalNodes>
            0 -1 22 1.6360298031941056e-03</internalNodes>
          <leafValues>
            -2.3408684134483337e-01 6.3681459426879883e-01</leafValues></_>
        <_>
          <internalNodes>
            0 -1 80 -1.8819595425156876e-05</internalNodes>
          <leafValues>
            3.6656302213668823e-01 -3.7423515319824219e-01</leafValues></_>
        <_>
          <internalNodes>
            0 -1 105 2.7778855292126536e-04</internalNodes>
          <leafValues>
            2.1310777962207794e-01 -7.1127653121948242e-01</leafValues></_></weakClassifiers></_>
    <!-- stage 16 -->
    <_>
      <maxWeakCount>11</maxWeakCount>
      <stageThreshold>-9.7847163677215576e-01</stageThreshold>
      <weakClassifiers>
        <_>
          <internalNodes>
            0 -1 76 -8.7199936388060451e-05</internalNodes>
          <leafValues>
            -4.6000000834465027e-01 1.5415020287036896e-01</leafValues></_>
        <_>
          <internalNodes>
            0 -1 81 2.5348875671625137e-02</internalNodes>
          <leafValues>
            8.8367938995361328e-02 -1.</leafValues></_>
        <_>
          <internalNodes>
            0 -1 87 4.1538570076227188e-04</internalNodes>
          <leafValues>
            -2.7430093288421631e-01 4.0301191806793213e-01</leafValues></_>
        <_>
          <internalNodes>
            0 -1 49 -1.7706383368931711e-04</internalNodes>
          <leafValues>
            -6.0217720270156860e-01 1.6374881565570831e-01</leafValues></_>
        <_>
          <internalNodes>
            0 -1 124 -8.8758251877152361e-06</internalNodes>
          <leafValues>
            3.0548703670501709e-01 -3.7096551060676575e-01</leafValues></_>
        <_>
          <internalNodes>
            0 -1 167 -1.3371650129556656e-03</internalNodes>
          <leafValues>
            5.6452834606170654e-01 -2.3274447023868561e-01</leafValues></_>
        <_>
          <internalNodes>
            0 -1 21 -2.4755178019404411e-03</internalNodes>
          <leafValues>
            6.1488962173461914e-01 -1.6379036009311676e-01</leafValues></_>
        <_>
          <internalNodes>
            0 -1 0 -1.2876964174211025e-03</internalNodes>
          <leafValues>
            -8.5201716423034668e-01 1.4995476603507996e-01</leafValues></_>
        <_>
          <internalNodes>
            0 -1 165 -1.3678669347427785e-04</internalNodes>
          <leafValues>
            -6.9135391712188721e-01 1.4855894446372986e-01</leafValues></_>
        <_>
          <internalNodes>
            0 -1 61 3.6063032894162461e-05</internalNodes>
          <leafValues>
            -2.8214907646179199e-01 4.0727901458740234e-01</leafValues></_>
        <_>
          <internalNodes>
            0 -1 46 3.8535236380994320e-03</internalNodes>
          <leafValues>
            -2.7068874239921570e-01 5.1969957351684570e-01</leafValues></_></weakClassifiers></_>
    <!-- stage 17 -->
    <_>
      <maxWeakCount>12</maxWeakCount>
      <stageThreshold>-7.9778814315795898e-01</stageThreshold>
      <weakClassifiers>
        <_>
          <internalNodes>
            0 -1 50 -2.3890760540962219e-01</internalNodes>
          <leafValues>
            3.3333334326744080e-01 -3.9007091522216797e-01</leafValues></_>
        <_>
          <internalNodes>
            0 -1 102 -7.2808063123375177e-04</internalNodes>
          <leafValues>
            2.7124825119972229e-01 -4.1351795196533203e-01</leafValues></_>
        <_>
          <internalNodes>
            0 -1 137 3.6045523302163929e-05</internalNodes>
          <leafValues>
            -3.6586669087409973e-01 2.9413938522338867e-01</leafValues></_>
        <_>
          <internalNodes>
            0 -1 23 4.2488873004913330e-03</internalNodes>
          <leafValues>
            -1.7388014495372772e-01 6.1489242315292358e-01</leafValues></_>
        <_>
          <internalNodes>
            0 -1 62 1.0007222044805530e-05</internalNodes>
          <leafValues>
            -2.9663568735122681e-01 4.3265992403030396e-01</leafValues></_>
        <_>
          <internalNodes>
            0 -1 28 1.8070668447762728e-03</internalNodes>
          <leafValues>
            1.1897739768028259e-01 -9.0846741199493408e-01</leafValues></_>
        <_>
          <internalNodes>
            0 -1 134 8.4549301391234621e-06</internalNodes>
          <leafValues>
            -3.5744959115982056e-01 3.1563603878021240e-01</leafValues></_>
        <_>
          <internalNodes>
            0 -1 58 -2.4575116112828255e-03</internalNodes>
          <leafValues>
            3.4021300077438354e-01 -3.6680465936660767e-01</leafValues></_>
        <_>
          <internalNodes>
            0 -1 174 -3.1347508775070310e-04</internalNodes>
          <leafValues>
            -7.4222874641418457e-01 1.7377755045890808e-01</leafValues></_>
        <_>
          <internalNodes>
            0 -1 132 1.3774170074611902e-03</internalNodes>
          <leafValues>
            -2.8040465712547302e-01 4.5053854584693909e-01</leafValues></_>
        <_>
          <internalNodes>
            0 -1 162 1.9151899963617325e-02</internalNodes>
          <leafValues>
            -1.6832193732261658e-01 6.3277637958526611e-01</leafValues></_>
        <_>
          <internalNodes>
            0 -1 159 1.3612008187919855e-03</internalNodes>
          <leafValues>
            -2.1274447441101074e-01 5.0039923191070557e-01</leafValues></_></weakClassifiers></_>
    <!-- stage 18 -->
    <_>
      <maxWeakCount>11</maxWeakCount>
      <stageThreshold>-8.0809909105300903e-01</stageThreshold>
      <weakClassifiers>
        <_>
          <internalNodes>
            0 -1 96 -8.1255085766315460e-02</internalNodes>
          <leafValues>
            1.9259259104728699e-01 -5.7377046346664429e-01</leafValues></_>
        <_>
          <internalNodes>
            0 -1 152 -9.6563626357237808e-06</internalNodes>
          <leafValues>
            3.7051427364349365e-01 -3.4430837631225586e-01</leafValues></_>
        <_>
          <internalNodes>
            0 -1 42 -1.7162144649773836e-04</internalNodes>
          <leafValues>
            -4.4501021504402161e-01 2.3917801678180695e-01</leafValues></_>
        <_>
          <internalNodes>
            0 -1 158 -1.7806258256314322e-05</internalNodes>
          <leafValues>
            3.8496282696723938e-01 -2.7782613039016724e-01</leafValues></_>
        <_>
          <internalNodes>
            0 -1 128 2.3544328287243843e-03</internalNodes>
          <leafValues>
            -2.9106569290161133e-01 4.4630089402198792e-01</leafValues></_>
        <_>
          <internalNodes>
            0 -1 116 -2.6560830883681774e-03</internalNodes>
          <leafValues>
            5.2932596206665039e-01 -2.2740089893341064e-01</leafValues></_>
        <_>
          <internalNodes>
            0 -1 89 -2.0645018666982651e-03</internalNodes>
          <leafValues>
            -7.0574438571929932e-01 1.8654175102710724e-01</leafValues></_>
        <_>
          <internalNodes>
            0 -1 180 -1.9318007398396730e-03</internalNodes>
          <leafValues>
            3.4504249691963196e-01 -3.3550947904586792e-01</leafValues></_>
        <_>
          <internalNodes>
            0 -1 133 4.5657753944396973e-03</internalNodes>
          <leafValues>
            1.4488311111927032e-01 -8.8159936666488647e-01</leafValues></_>
        <_>
          <internalNodes>
            0 -1 32 1.6467300010845065e-03</internalNodes>
          <leafValues>
            -3.3467671275138855e-01 3.6287736892700195e-01</leafValues></_>
        <_>
          <internalNodes>
            0 -1 161 1.0126602319360245e-05</internalNodes>
          <leafValues>
            -3.3748510479927063e-01 3.4331232309341431e-01</leafValues></_></weakClassifiers></_>
    <!-- stage 19 -->
    <_>
      <maxWeakCount>12</maxWeakCount>
      <stageThreshold>-8.6099737882614136e-01</stageThreshold>
      <weakClassifiers>
        <_>
          <internalNodes>
            0 -1 6 -3.0292270239442587e-03</internalNodes>
          <leafValues>
            2.0689655840396881e-01 -4.5701357722282410e-01</leafValues></_>
        <_>
          <internalNodes>
            0 -1 47 -1.3720745220780373e-02</internalNodes>
          <leafValues>
            -6.9851392507553101e-01 1.4364986121654510e-01</leafValues></_>
        <_>
          <internalNodes>
            0 -1 99 -7.2905741399154067e-04</internalNodes>
          <leafValues>
            3.0143034458160400e-01 -3.7453964352607727e-01</leafValues></_>
        <_>
          <internalNodes>
            0 -1 140 -9.9405064247548580e-05</internalNodes>
          <leafValues>
            3.1975278258323669e-01 -3.3914339542388916e-01</leafValues></_>
        <_>
          <internalNodes>
            0 -1 126 -1.6965692338999361e-05</internalNodes>
          <leafValues>
            2.7091690897941589e-01 -3.8951522111892700e-01</leafValues></_>
        <_>
          <internalNodes>
            0 -1 172 -5.6127328425645828e-03</internalNodes>
          <leafValues>
            6.3670772314071655e-01 -1.9002906978130341e-01</leafValues></_>
        <_>
          <internalNodes>
            0 -1 156 -1.1510684998938814e-05</internalNodes>
          <leafValues>
            3.7621670961380005e-01 -3.3911338448524475e-01</leafValues></_>
        <_>
          <internalNodes>
            0 -1 164 8.8417454389855266e-04</internalNodes>
          <leafValues>
            -1.2006074935197830e-01 9.2088168859481812e-01</leafValues></_>
        <_>
          <internalNodes>
            0 -1 91 -3.3538829302415252e-04</internalNodes>
          <leafValues>
            -6.7802190780639648e-01 2.1588312089443207e-01</leafValues></_>
        <_>
          <internalNodes>
            0 -1 88 1.2241606600582600e-04</internalNodes>
          <leafValues>
            -3.1714344024658203e-01 4.0309578180313110e-01</leafValues></_>
        <_>
          <internalNodes>
            0 -1 157 2.2394899860955775e-04</internalNodes>
          <leafValues>
            -2.2697880864143372e-01 6.0311764478683472e-01</leafValues></_>
        <_>
          <internalNodes>
            0 -1 138 -3.5711465170606971e-04</internalNodes>
          <leafValues>
            5.5353826284408569e-01 -2.2774915397167206e-01</leafValues></_></weakClassifiers></_></stages>
  <features>
    <_>
      <rects>
        <_>
          0 0 4 2 -1.</_>
        <_>
          2 0 2 2 2.</_></rects>
      <tilted>0</tilted></_>
    <_>
      <rects>
        <_>
          0 0 24 26 -1.</_>
        <_>
          8 0 8 26 3.</_></rects>
      <tilted>0</tilted></_>
    <_>
      <rects>
        <_>
          0 0 30 29 -1.</_>
        <_>
          10 0 10 29 3.</_></rects>
      <tilted>0</tilted></_>
    <_>
      <rects>
        <_>
          0 0 27 16 -1.</_>
        <_>
          0 8 27 8 2.</_></rects>
      <tilted>0</tilted></_>
    <_>
      <rects>
        <_>
          0 0 30 18 -1.</_>
        <_>
          0 9 30 9 2.</_></rects>
      <tilted>0</tilted></_>
    <_>
      <rects>
        <_>
          0 1 2 1 -1.</_>
        <_>
          1 1 1 1 2.</_></rects>
      <tilted>0</tilted></_>
    <_>
      <rects>
        <_>
          0 2 6 13 -1.</_>
        <_>
          3 2 3 13 2.</_></rects>
      <tilted>0</tilted></_>
    <_>
      <rects>
        <_>
          0 2 8 27 -1.</_>
        <_>
          4 2 4 27 2.</_></rects>
      <tilted>0</tilted></_>
    <_>
      <rects>
        <_>
          0 2 21 1 -1.</_>
        <_>
          7 2 7 1 3.</_></rects>
      <tilted>0</tilted></_>
    <_>
      <rects>
        <_>
          0 2 24 22 -1.</_>
        <_>
          8 2 8 22 3.</_></rects>
      <tilted>0</tilted></_>
    <_>
      <rects>
        <_>
          0 4 2 18 -1.</_>
        <_>
          1 4 1 18 2.</_></rects>
      <tilted>0</tilted></_>
    <_>
      <rects>
        <_>
          0 6 12 24 -1.</_>
        <_>
          0 6 6 12 2.</_>
        <_>
          6 18 6 12 2.</_></rects>
      <tilted>0</tilted></_>
    <_>
      <rects>
        <_>
          0 8 2 7 -1.</_>
        <_>
          1 8 1 7 2.</_></rects>
      <tilted>0</tilted></_>
    <_>
      <rects>
        <_>
          0 8 2 22 -1.</_>
        <_>
          0 8 1 11 2.</_>
        <_>
          1 19 1 11 2.</_></rects>
      <tilted>0</tilted></_>
    <_>
      <rects>
        <_>
          0 9 3 7 -1.</_>
        <_>
          1 9 1 7 3.</_></rects>
      <tilted>0</tilted></_>
    <_>
      <rects>
        <_>
          0 9 2 17 -1.</_>
        <_>
          1 9 1 17 2.</_></rects>
      <tilted>0</tilted></_>
    <_>
      <rects>
        <_>
          0 9 4 9 -1.</_>
        <_>
          2 9 2 9 2.</_></rects>
      <tilted>0</tilted></_>
    <_>
      <rects>
        <_>
          0 10 3 8 -1.</_>
        <_>
          1 10 1 8 3.</_></rects>
      <tilted>0</tilted></_>
    <_>
      <rects>
        <_>
          0 10 3 9 -1.</_>
        <_>
          1 10 1 9 3.</_></rects>
      <tilted>0</tilted></_>
    <_>
      <rects>
        <_>
          0 11 2 6 -1.</_>
        <_>
          1 11 1 6 2.</_></rects>
      <tilted>0</tilted></_>
    <_>
      <rects>
        <_>
          0 11 3 8 -1.</_>
        <_>
          1 11 1 8 3.</_></rects>
      <tilted>0</tilted></_>
    <_>
      <rects>
        <_>
          0 13 2 3 -1.</_>
        <_>
          1 13 1 3 2.</_></rects>
      <tilted>0</tilted></_>
    <_>
      <rects>
        <_>
          0 13 3 5 -1.</_>
        <_>
          1 13 1 5 3.</_></rects>
      <tilted>0</tilted></_>
    <_>
      <rects>
        <_>
          0 13 2 14 -1.</_>
        <_>
          0 13 1 7 2.</_>
        <_>
          1 20 1 7 2.</_></rects>
      <tilted>0</tilted></_>
    <_>
      <rects>
        <_>
          0 16 22 2 -1.</_>
        <_>
          0 16 11 1 2.</_>
        <_>
          11 17 11 1 2.</_></rects>
      <tilted>0</tilted></_>
    <_>
      <rects>
        <_>
          0 19 2 4 -1.</_>
        <_>
          1 19 1 4 2.</_></rects>
      <tilted>0</tilted></_>
    <_>
      <rects>
        <_>
          0 24 6 1 -1.</_>
        <_>
          2 24 2 1 3.</_></rects>
      <tilted>0</tilted></_>
    <_>
      <rects>
        <_>
          0 27 4 2 -1.</_>
        <_>
          0 27 2 1 2.</_>
        <_>
          2 28 2 1 2.</_></rects>
      <tilted>0</tilted></_>
    <_>
      <rects>
        <_>
          0 28 6 2 -1.</_>
        <_>
          0 28 3 1 2.</_>
        <_>
          3 29 3 1 2.</_></rects>
      <tilted>0</tilted></_>
    <_>
      <rects>
        <_>
          1 0 23 2 -1.</_>
        <_>
          1 1 23 1 2.</_></rects>
      <tilted>0</tilted></_>
    <_>
      <rects>
        <_>
          1 0 23 28 -1.</_>
        <_>
          1 14 23 14 2.</_></rects>
      <tilted>0</tilted></_>
    <_>
      <rects>
        <_>
          1 0 28 20 -1.</_>
        <_>
          1 10 28 10 2.</_></rects>
      <tilted>0</tilted></_>
    <_>
      <rects>
        <_>
          1 4 4 8 -1.</_>
        <_>
          1 4 2 4 2.</_>
        <_>
          3 8 2 4 2.</_></rects>
      <tilted>0</tilted></_>
    <_>
      <rects>
        <_>
          1 6 2 10 -1.</_>
        <_>
          1 6 1 5 2.</_>
        <_>
          2 11 1 5 2.</_></rects>
      <tilted>0</tilted></_>
    <_>
      <rects>
        <_>
          1 9 24 7 -1.</_>
        <_>
          13 9 12 7 2.</_></rects>
      <tilted>0</tilted></_>
    <_>
      <rects>
        <_>
          1 10 3 18 -1.</_>
        <_>
          1 19 3 9 2.</_></rects>
      <tilted>0</tilted></_>
    <_>
      <rects>
        <_>
          1 10 16 2 -1.</_>
        <_>
          9 10 8 2 2.</_></rects>
      <tilted>0</tilted></_>
    <_>
      <rects>
        <_>
          1 12 2 3 -1.</_>
        <_>
          2 12 1 3 2.</_></rects>
      <tilted>0</tilted></_>
    <_>
      <rects>
        <_>
          1 13 2 9 -1.</_>
        <_>
          2 13 1 9 2.</_></rects>
      <tilted>0</tilted></_>
    <_>
      <rects>
        <_>
          1 20 8 8 -1.</_>
        <_>
          1 20 4 4 2.</_>
        <_>
          5 24 4 4 2.</_></rects>
      <tilted>0</tilted></_>
    <_>
      <rects>
        <_>
          1 21 2 6 -1.</_>
        <_>
          2 21 1 6 2.</_></rects>
      <tilted>0</tilted></_>
    <_>
      <rects>
        <_>
          1 26 10 2 -1.</_>
        <_>
          6 26 5 2 2.</_></rects>
      <tilted>0</tilted></_>
    <_>
      <rects>
        <_>
          1 27 2 3 -1.</_>
        <_>
          2 27 1 3 2.</_></rects>
      <tilted>0</tilted></_>
    <_>
      <rects>
        <_>
          1 28 27 2 -1.</_>
        <_>
          1 29 27 1 2.</_></rects>
      <tilted>0</tilted></_>
    <_>
      <rects>
        <_>
          2 0 28 4 -1.</_>
        <_>
          2 2 28 2 2.</_></rects>
      <tilted>0</tilted></_>
    <_>
      <rects>
        <_>
          2 1 18 7 -1.</_>
        <_>
          8 1 6 7 3.</_></rects>
      <tilted>0</tilted></_>
    <_>
      <rects>
        <_>
          2 3 4 8 -1.</_>
        <_>
          2 3 2 4 2.</_>
        <_>
          4 7 2 4 2.</_></rects>
      <tilted>0</tilted></_>
    <_>
      <rects>
        <_>
          2 8 24 1 -1.</_>
        <_>
          10 8 8 1 3.</_></rects>
      <tilted>0</tilted></_>
    <_>
      <rects>
        <_>
          2 11 2 1 -1.</_>
        <_>
          3 11 1 1 2.</_></rects>
      <tilted>0</tilted></_>
    <_>
      <rects>
        <_>
          2 29 2 1 -1.</_>
        <_>
          3 29 1 1 2.</_></rects>
      <tilted>0</tilted></_>
    <_>
      <rects>
        <_>
          3 0 16 20 -1.</_>
        <_>
          3 10 16 10 2.</_></rects>
      <tilted>0</tilted></_>
    <_>
      <rects>
        <_>
          3 0 18 24 -1.</_>
        <_>
          3 12 18 12 2.</_></rects>
      <tilted>0</tilted></_>
    <_>
      <rects>
        <_>
          3 1 27 24 -1.</_>
        <_>
          12 1 9 24 3.</_></rects>
      <tilted>0</tilted></_>
    <_>
      <rects>
        <_>
          3 2 2 12 -1.</_>
        <_>
          3 6 2 4 3.</_></rects>
      <tilted>0</tilted></_>
    <_>
      <rects>
        <_>
          3 9 2 1 -1.</_>
        <_>
          4 9 1 1 2.</_></rects>
      <tilted>0</tilted></_>
    <_>
      <rects>
        <_>
          3 9 24 6 -1.</_>
        <_>
          15 9 12 6 2.</_></rects>
      <tilted>0</tilted></_>
    <_>
      <rects>
        <_>
          3 13 2 2 -1.</_>
        <_>
          3 13 1 1 2.</_>
        <_>
          4 14 1 1 2.</_></rects>
      <tilted>0</tilted></_>
    <_>
      <rects>
        <_>
          3 19 12 8 -1.</_>
        <_>
          9 19 6 8 2.</_></rects>
      <tilted>0</tilted></_>
    <_>
      <rects>
        <_>
          3 23 10 6 -1.</_>
        <_>
          3 23 5 3 2.</_>
        <_>
          8 26 5 3 2.</_></rects>
      <tilted>0</tilted></_>
    <_>
      <rects>
        <_>
          3 26 20 2 -1.</_>
        <_>
          3 26 10 1 2.</_>
        <_>
          13 27 10 1 2.</_></rects>
      <tilted>0</tilted></_>
    <_>
      <rects>
        <_>
          4 0 20 2 -1.</_>
        <_>
          4 1 20 1 2.</_></rects>
      <tilted>0</tilted></_>
    <_>
      <rects>
        <_>
          4 3 1 3 -1.</_>
        <_>
          4 4 1 1 3.</_></rects>
      <tilted>0</tilted></_>
    <_>
      <rects>
        <_>
          4 6 1 2 -1.</_>
        <_>
          4 7 1 1 2.</_></rects>
      <tilted>0</tilted></_>
    <_>
      <rects>
        <_>
          4 11 2 2 -1.</_>
        <_>
          4 11 1 1 2.</_>
        <_>
          5 12 1 1 2.</_></rects>
      <tilted>0</tilted></_>
    <_>
      <rects>
        <_>
          4 21 9 3 -1.</_>
        <_>
          7 21 3 3 3.</_></rects>
      <tilted>0</tilted></_>
    <_>
      <rects>
        <_>
          4 25 6 3 -1.</_>
        <_>
          7 25 3 3 2.</_></rects>
      <tilted>0</tilted></_>
    <_>
      <rects>
        <_>
          4 28 17 2 -1.</_>
        <_>
          4 29 17 1 2.</_></rects>
      <tilted>0</tilted></_>
    <_>
      <rects>
        <_>
          5 6 18 16 -1.</_>
        <_>
          5 14 18 8 2.</_></rects>
      <tilted>0</tilted></_>
    <_>
      <rects>
        <_>
          5 13 2 6 -1.</_>
        <_>
          5 15 2 2 3.</_></rects>
      <tilted>0</tilted></_>
    <_>
      <rects>
        <_>
          5 14 1 3 -1.</_>
        <_>
          5 15 1 1 3.</_></rects>
      <tilted>0</tilted></_>
    <_>
      <rects>
        <_>
          6 0 12 2 -1.</_>
        <_>
          6 1 12 1 2.</_></rects>
      <tilted>0</tilted></_>
    <_>
      <rects>
        <_>
          6 10 15 12 -1.</_>
        <_>
          6 14 15 4 3.</_></rects>
      <tilted>0</tilted></_>
    <_>
      <rects>
        <_>
          6 12 12 8 -1.</_>
        <_>
          10 12 4 8 3.</_></rects>
      <tilted>0</tilted></_>
    <_>
      <rects>
        <_>
          6 19 4 6 -1.</_>
        <_>
          6 19 2 3 2.</_>
        <_>
          8 22 2 3 2.</_></rects>
      <tilted>0</tilted></_>
    <_>
      <rects>
        <_>
          6 23 16 4 -1.</_>
        <_>
          6 23 8 2 2.</_>
        <_>
          14 25 8 2 2.</_></rects>
      <tilted>0</tilted></_>
    <_>
      <rects>
        <_>
          6 27 2 2 -1.</_>
        <_>
          6 28 2 1 2.</_></rects>
      <tilted>0</tilted></_>
    <_>
      <rects>
        <_>
          7 1 4 4 -1.</_>
        <_>
          7 1 2 2 2.</_>
        <_>
          9 3 2 2 2.</_></rects>
      <tilted>0</tilted></_>
    <_>
      <rects>
        <_>
          7 3 10 10 -1.</_>
        <_>
          7 3 5 5 2.</_>
        <_>
          12 8 5 5 2.</_></rects>
      <tilted>0</tilted></_>
    <_>
      <rects>
        <_>
          7 9 18 18 -1.</_>
        <_>
          7 9 9 9 2.</_>
        <_>
          16 18 9 9 2.</_></rects>
      <tilted>0</tilted></_>
    <_>
      <rects>
        <_>
          7 10 15 6 -1.</_>
        <_>
          7 12 15 2 3.</_></rects>
      <tilted>0</tilted></_>
    <_>
      <rects>
        <_>
          7 13 2 1 -1.</_>
        <_>
          8 13 1 1 2.</_></rects>
      <tilted>0</tilted></_>
    <_>
      <rects>
        <_>
          7 14 17 6 -1.</_>
        <_>
          7 17 17 3 2.</_></rects>
      <tilted>0</tilted></_>
    <_>
      <rects>
        <_>
          7 19 1 8 -1.</_>
        <_>
          7 23 1 4 2.</_></rects>
      <tilted>0</tilted></_>
    <_>
      <rects>
        <_>
          7 22 9 5 -1.</_>
        <_>
          10 22 3 5 3.</_></rects>
      <tilted>0</tilted></_>
    <_>
      <rects>
        <_>
          7 28 2 1 -1.</_>
        <_>
          8 28 1 1 2.</_></rects>
      <tilted>0</tilted></_>
    <_>
      <rects>
        <_>
          8 6 15 14 -1.</_>
        <_>
          13 6 5 14 3.</_></rects>
      <tilted>0</tilted></_>
    <_>
      <rects>
        <_>
          8 12 15 6 -1.</_>
        <_>
          8 14 15 2 3.</_></rects>
      <tilted>0</tilted></_>
    <_>
      <rects>
        <_>
          8 15 14 2 -1.</_>
        <_>
          8 16 14 1 2.</_></rects>
      <tilted>0</tilted></_>
    <_>
      <rects>
        <_>
          8 23 4 2 -1.</_>
        <_>
          8 23 2 1 2.</_>
        <_>
          10 24 2 1 2.</_></rects>
      <tilted>0</tilted></_>
    <_>
      <rects>
        <_>
          8 26 12 2 -1.</_>
        <_>
          8 27 12 1 2.</_></rects>
      <tilted>0</tilted></_>
    <_>
      <rects>
        <_>
          9 21 2 2 -1.</_>
        <_>
          9 21 1 1 2.</_>
        <_>
          10 22 1 1 2.</_></rects>
      <tilted>0</tilted></_>
    <_>
      <rects>
        <_>
          9 21 2 2 -1.</_>
        <_>
          9 22 2 1 2.</_></rects>
      <tilted>0</tilted></_>
    <_>
      <rects>
        <_>
          9 28 12 2 -1.</_>
        <_>
          9 29 12 1 2.</_></rects>
      <tilted>0</tilted></_>
    <_>
      <rects>
        <_>
          10 0 1 3 -1.</_>
        <_>
          10 1 1 1 3.</_></rects>
      <tilted>0</tilted></_>
    <_>
      <rects>
        <_>
          10 0 11 3 -1.</_>
        <_>
          10 1 11 1 3.</_></rects>
      <tilted>0</tilted></_>
    <_>
      <rects>
        <_>
          10 0 12 28 -1.</_>
        <_>
          10 14 12 14 2.</_></rects>
      <tilted>0</tilted></_>
    <_>
      <rects>
        <_>
          10 6 9 24 -1.</_>
        <_>
          10 14 9 8 3.</_></rects>
      <tilted>0</tilted></_>
    <_>
      <rects>
        <_>
          10 13 9 3 -1.</_>
        <_>
          10 14 9 1 3.</_></rects>
      <tilted>0</tilted></_>
    <_>
      <rects>
        <_>
          10 15 6 15 -1.</_>
        <_>
          12 15 2 15 3.</_></rects>
      <tilted>0</tilted></_>
    <_>
      <rects>
        <_>
          10 18 9 1 -1.</_>
        <_>
          13 18 3 1 3.</_></rects>
      <tilted>0</tilted></_>
    <_>
      <rects>
        <_>
          10 19 14 6 -1.</_>
        <_>
          10 21 14 2 3.</_></rects>
      <tilted>0</tilted></_>
    <_>
      <rects>
        <_>
          10 27 11 3 -1.</_>
        <_>
          10 28 11 1 3.</_></rects>
      <tilted>0</tilted></_>
    <_>
      <rects>
        <_>
          10 27 12 3 -1.</_>
        <_>
          10 28 12 1 3.</_></rects>
      <tilted>0</tilted></_>
    <_>
      <rects>
        <_>
          11 10 12 8 -1.</_>
        <_>
          11 14 12 4 2.</_></rects>
      <tilted>0</tilted></_>
    <_>
      <rects>
        <_>
          11 14 4 8 -1.</_>
        <_>
          11 18 4 4 2.</_></rects>
      <tilted>0</tilted></_>
    <_>
      <rects>
        <_>
          11 17 1 3 -1.</_>
        <_>
          11 18 1 1 3.</_></rects>
      <tilted>0</tilted></_>
    <_>
      <rects>
        <_>
          11 17 9 8 -1.</_>
        <_>
          11 21 9 4 2.</_></rects>
      <tilted>0</tilted></_>
    <_>
      <rects>
        <_>
          11 28 17 2 -1.</_>
        <_>
          11 29 17 1 2.</_></rects>
      <tilted>0</tilted></_>
    <_>
      <rects>
        <_>
          12 0 4 20 -1.</_>
        <_>
          12 10 4 10 2.</_></rects>
      <tilted>0</tilted></_>
    <_>
      <rects>
        <_>
          12 0 6 30 -1.</_>
        <_>
          12 10 6 10 3.</_></rects>
      <tilted>0</tilted></_>
    <_>
      <rects>
        <_>
          12 6 9 2 -1.</_>
        <_>
          15 6 3 2 3.</_></rects>
      <tilted>0</tilted></_>
    <_>
      <rects>
        <_>
          12 7 1 2 -1.</_>
        <_>
          12 8 1 1 2.</_></rects>
      <tilted>0</tilted></_>
    <_>
      <rects>
        <_>
          12 9 18 20 -1.</_>
        <_>
          21 9 9 20 2.</_></rects>
      <tilted>0</tilted></_>
    <_>
      <rects>
        <_>
          12 9 11 10 -1.</_>
        <_>
          12 14 11 5 2.</_></rects>
      <tilted>0</tilted></_>
    <_>
      <rects>
        <_>
          12 9 12 14 -1.</_>
        <_>
          12 16 12 7 2.</_></rects>
      <tilted>0</tilted></_>
    <_>
      <rects>
        <_>
          12 11 4 1 -1.</_>
        <_>
          14 11 2 1 2.</_></rects>
      <tilted>0</tilted></_>
    <_>
      <rects>
        <_>
          12 12 4 12 -1.</_>
        <_>
          12 12 2 6 2.</_>
        <_>
          14 18 2 6 2.</_></rects>
      <tilted>0</tilted></_>
    <_>
      <rects>
        <_>
          12 12 10 8 -1.</_>
        <_>
          17 12 5 8 2.</_></rects>
      <tilted>0</tilted></_>
    <_>
      <rects>
        <_>
          12 14 1 3 -1.</_>
        <_>
          12 15 1 1 3.</_></rects>
      <tilted>0</tilted></_>
    <_>
      <rects>
        <_>
          12 18 3 2 -1.</_>
        <_>
          12 19 3 1 2.</_></rects>
      <tilted>0</tilted></_>
    <_>
      <rects>
        <_>
          12 21 4 7 -1.</_>
        <_>
          14 21 2 7 2.</_></rects>
      <tilted>0</tilted></_>
    <_>
      <rects>
        <_>
          13 2 6 27 -1.</_>
        <_>
          13 11 6 9 3.</_></rects>
      <tilted>0</tilted></_>
    <_>
      <rects>
        <_>
          13 6 10 8 -1.</_>
        <_>
          18 6 5 8 2.</_></rects>
      <tilted>0</tilted></_>
    <_>
      <rects>
        <_>
          13 7 2 18 -1.</_>
        <_>
          13 13 2 6 3.</_></rects>
      <tilted>0</tilted></_>
    <_>
      <rects>
        <_>
          13 15 3 3 -1.</_>
        <_>
          13 16 3 1 3.</_></rects>
      <tilted>0</tilted></_>
    <_>
      <rects>
        <_>
          14 9 2 4 -1.</_>
        <_>
          14 9 1 2 2.</_>
        <_>
          15 11 1 2 2.</_></rects>
      <tilted>0</tilted></_>
    <_>
      <rects>
        <_>
          14 14 1 3 -1.</_>
        <_>
          14 15 1 1 3.</_></rects>
      <tilted>0</tilted></_>
    <_>
      <rects>
        <_>
          14 16 2 3 -1.</_>
        <_>
          14 17 2 1 3.</_></rects>
      <tilted>0</tilted></_>
    <_>
      <rects>
        <_>
          14 18 12 1 -1.</_>
        <_>
          18 18 4 1 3.</_></rects>
      <tilted>0</tilted></_>
    <_>
      <rects>
        <_>
          14 19 4 2 -1.</_>
        <_>
          14 20 4 1 2.</_></rects>
      <tilted>0</tilted></_>
    <_>
      <rects>
        <_>
          14 21 3 2 -1.</_>
        <_>
          15 21 1 2 3.</_></rects>
      <tilted>0</tilted></_>
    <_>
      <rects>
        <_>
          14 22 12 2 -1.</_>
        <_>
          14 22 6 1 2.</_>
        <_>
          20 23 6 1 2.</_></rects>
      <tilted>0</tilted></_>
    <_>
      <rects>
        <_>
          15 0 10 2 -1.</_>
        <_>
          15 0 5 1 2.</_>
        <_>
          20 1 5 1 2.</_></rects>
      <tilted>0</tilted></_>
    <_>
      <rects>
        <_>
          15 22 4 4 -1.</_>
        <_>
          15 24 4 2 2.</_></rects>
      <tilted>0</tilted></_>
    <_>
      <rects>
        <_>
          16 8 2 2 -1.</_>
        <_>
          17 8 1 2 2.</_></rects>
      <tilted>0</tilted></_>
    <_>
      <rects>
        <_>
          16 11 2 1 -1.</_>
        <_>
          17 11 1 1 2.</_></rects>
      <tilted>0</tilted></_>
    <_>
      <rects>
        <_>
          16 23 14 7 -1.</_>
        <_>
          23 23 7 7 2.</_></rects>
      <tilted>0</tilted></_>
    <_>
      <rects>
        <_>
          17 11 2 1 -1.</_>
        <_>
          18 11 1 1 2.</_></rects>
      <tilted>0</tilted></_>
    <_>
      <rects>
        <_>
          17 12 1 3 -1.</_>
        <_>
          17 13 1 1 3.</_></rects>
      <tilted>0</tilted></_>
    <_>
      <rects>
        <_>
          17 12 3 5 -1.</_>
        <_>
          18 12 1 5 3.</_></rects>
      <tilted>0</tilted></_>
    <_>
      <rects>
        <_>
          17 13 3 2 -1.</_>
        <_>
          18 13 1 2 3.</_></rects>
      <tilted>0</tilted></_>
    <_>
      <rects>
        <_>
          17 22 2 1 -1.</_>
        <_>
          18 22 1 1 2.</_></rects>
      <tilted>0</tilted></_>
    <_>
      <rects>
        <_>
          18 1 12 3 -1.</_>
        <_>
          24 1 6 3 2.</_></rects>
      <tilted>0</tilted></_>
    <_>
      <rects>
        <_>
          18 10 6 14 -1.</_>
        <_>
          18 10 3 7 2.</_>
        <_>
          21 17 3 7 2.</_></rects>
      <tilted>0</tilted></_>
    <_>
      <rects>
        <_>
          18 17 6 12 -1.</_>
        <_>
          18 17 3 6 2.</_>
        <_>
          21 23 3 6 2.</_></rects>
      <tilted>0</tilted></_>
    <_>
      <rects>
        <_>
          18 21 2 1 -1.</_>
        <_>
          19 21 1 1 2.</_></rects>
      <tilted>0</tilted></_>
    <_>
      <rects>
        <_>
          18 26 10 4 -1.</_>
        <_>
          18 28 10 2 2.</_></rects>
      <tilted>0</tilted></_>
    <_>
      <rects>
        <_>
          19 18 2 10 -1.</_>
        <_>
          19 18 1 5 2.</_>
        <_>
          20 23 1 5 2.</_></rects>
      <tilted>0</tilted></_>
    <_>
      <rects>
        <_>
          19 25 4 1 -1.</_>
        <_>
          21 25 2 1 2.</_></rects>
      <tilted>0</tilted></_>
    <_>
      <rects>
        <_>
          20 2 6 4 -1.</_>
        <_>
          20 2 3 2 2.</_>
        <_>
          23 4 3 2 2.</_></rects>
      <tilted>0</tilted></_>
    <_>
      <rects>
        <_>
          20 23 1 4 -1.</_>
        <_>
          20 25 1 2 2.</_></rects>
      <tilted>0</tilted></_>
    <_>
      <rects>
        <_>
          21 3 3 1 -1.</_>
        <_>
          22 3 1 1 3.</_></rects>
      <tilted>0</tilted></_>
    <_>
      <rects>
        <_>
          21 24 2 1 -1.</_>
        <_>
          22 24 1 1 2.</_></rects>
      <tilted>0</tilted></_>
    <_>
      <rects>
        <_>
          22 7 6 22 -1.</_>
        <_>
          22 7 3 11 2.</_>
        <_>
          25 18 3 11 2.</_></rects>
      <tilted>0</tilted></_>
    <_>
      <rects>
        <_>
          22 12 1 2 -1.</_>
        <_>
          22 13 1 1 2.</_></rects>
      <tilted>0</tilted></_>
    <_>
      <rects>
        <_>
          23 19 6 8 -1.</_>
        <_>
          23 19 3 4 2.</_>
        <_>
          26 23 3 4 2.</_></rects>
      <tilted>0</tilted></_>
    <_>
      <rects>
        <_>
          23 20 2 2 -1.</_>
        <_>
          23 20 1 1 2.</_>
        <_>
          24 21 1 1 2.</_></rects>
      <tilted>0</tilted></_>
    <_>
      <rects>
        <_>
          23 24 3 1 -1.</_>
        <_>
          24 24 1 1 3.</_></rects>
      <tilted>0</tilted></_>
    <_>
      <rects>
        <_>
          23 25 1 2 -1.</_>
        <_>
          23 26 1 1 2.</_></rects>
      <tilted>0</tilted></_>
    <_>
      <rects>
        <_>
          24 3 3 15 -1.</_>
        <_>
          25 3 1 15 3.</_></rects>
      <tilted>0</tilted></_>
    <_>
      <rects>
        <_>
          24 8 6 1 -1.</_>
        <_>
          26 8 2 1 3.</_></rects>
      <tilted>0</tilted></_>
    <_>
      <rects>
        <_>
          24 18 1 2 -1.</_>
        <_>
          24 19 1 1 2.</_></rects>
      <tilted>0</tilted></_>
    <_>
      <rects>
        <_>
          25 8 2 22 -1.</_>
        <_>
          25 19 2 11 2.</_></rects>
      <tilted>0</tilted></_>
    <_>
      <rects>
        <_>
          26 1 2 6 -1.</_>
        <_>
          26 1 1 3 2.</_>
        <_>
          27 4 1 3 2.</_></rects>
      <tilted>0</tilted></_>
    <_>
      <rects>
        <_>
          26 5 2 2 -1.</_>
        <_>
          26 5 1 1 2.</_>
        <_>
          27 6 1 1 2.</_></rects>
      <tilted>0</tilted></_>
    <_>
      <rects>
        <_>
          27 0 2 1 -1.</_>
        <_>
          28 0 1 1 2.</_></rects>
      <tilted>0</tilted></_>
    <_>
      <rects>
        <_>
          27 4 2 6 -1.</_>
        <_>
          27 4 1 3 2.</_>
        <_>
          28 7 1 3 2.</_></rects>
      <tilted>0</tilted></_>
    <_>
      <rects>
        <_>
          27 8 2 6 -1.</_>
        <_>
          27 8 1 3 2.</_>
        <_>
          28 11 1 3 2.</_></rects>
      <tilted>0</tilted></_>
    <_>
      <rects>
        <_>
          27 9 3 6 -1.</_>
        <_>
          28 9 1 6 3.</_></rects>
      <tilted>0</tilted></_>
    <_>
      <rects>
        <_>
          27 9 3 7 -1.</_>
        <_>
          28 9 1 7 3.</_></rects>
      <tilted>0</tilted></_>
    <_>
      <rects>
        <_>
          27 10 3 13 -1.</_>
        <_>
          28 10 1 13 3.</_></rects>
      <tilted>0</tilted></_>
    <_>
      <rects>
        <_>
          27 13 3 2 -1.</_>
        <_>
          28 13 1 2 3.</_></rects>
      <tilted>0</tilted></_>
    <_>
      <rects>
        <_>
          27 14 1 15 -1.</_>
        <_>
          27 19 1 5 3.</_></rects>
      <tilted>0</tilted></_>
    <_>
      <rects>
        <_>
          27 15 3 3 -1.</_>
        <_>
          28 15 1 3 3.</_></rects>
      <tilted>0</tilted></_>
    <_>
      <rects>
        <_>
          27 29 2 1 -1.</_>
        <_>
          28 29 1 1 2.</_></rects>
      <tilted>0</tilted></_>
    <_>
      <rects>
        <_>
          28 2 2 22 -1.</_>
        <_>
          29 2 1 22 2.</_></rects>
      <tilted>0</tilted></_>
    <_>
      <rects>
        <_>
          28 6 2 15 -1.</_>
        <_>
          29 6 1 15 2.</_></rects>
      <tilted>0</tilted></_>
    <_>
      <rects>
        <_>
          28 7 2 19 -1.</_>
        <_>
          29 7 1 19 2.</_></rects>
      <tilted>0</tilted></_>
    <_>
      <rects>
        <_>
          28 9 2 6 -1.</_>
        <_>
          29 9 1 6 2.</_></rects>
      <tilted>0</tilted></_>
    <_>
      <rects>
        <_>
          28 9 2 7 -1.</_>
        <_>
          29 9 1 7 2.</_></rects>
      <tilted>0</tilted></_>
    <_>
      <rects>
        <_>
          28 12 2 14 -1.</_>
        <_>
          28 12 1 7 2.</_>
        <_>
          29 19 1 7 2.</_></rects>
      <tilted>0</tilted></_>
    <_>
      <rects>
        <_>
          28 24 2 4 -1.</_>
        <_>
          29 24 1 4 2.</_></rects>
      <tilted>0</tilted></_></features></cascade>
</opencv_storage>
